               [,1]          [,2]         [,3]          [,4]          [,5]
 [1,] -3.634119e-02 -0.0180109091  0.100656924 -3.185391e-02 -2.457635e-02
 [2,]  5.852244e-02  0.0289213110 -0.179102552  5.130074e-02  3.952755e-02
 [3,]  7.001903e-03  0.0038110429 -0.028325036  6.336113e-03  5.077778e-03
 [4,]  1.999501e-03  0.0010433786 -0.008765287  1.786554e-03  1.407067e-03
 [5,]  2.857368e-02  0.0144865377 -0.079090724  2.521979e-02  1.963943e-02
 [6,] -1.263687e-03 -0.0003995547 -0.003570471 -9.737227e-04 -6.253640e-04
 [7,]  3.914788e-02  0.0199116388 -0.116938758  3.460190e-02  2.697930e-02
 [8,] -4.015481e-02 -0.0203706532  0.116367493 -3.545843e-02 -2.761825e-02
 [9,]  5.360316e-03  0.0027072662 -0.013787226  4.724208e-03  3.673261e-03
[10,]  3.671170e-02  0.0187534509 -0.111015690  3.249611e-02  2.538201e-02
[11,] -3.480630e-02 -0.0175900392  0.103582922 -3.070469e-02 -2.387758e-02
[12,]  4.089784e-02  0.0207437882 -0.120680300  3.611513e-02  2.812725e-02
[13,]  1.794449e-02  0.0091786400 -0.053670243  1.589011e-02  1.241808e-02
[14,] -6.402913e-03 -0.0034580692  0.025109404 -5.773376e-03 -4.612922e-03
[15,] -3.107666e-02 -0.0156178286  0.092150278 -2.736801e-02 -2.123399e-02
[16,]  1.159496e-02  0.0058678983 -0.030274053  1.022350e-02  7.955740e-03
[17,]  7.966299e-03  0.0040316320 -0.021220632  7.023282e-03  5.465596e-03
[18,]  1.265901e-04  0.0004869042 -0.011664551  3.529741e-04  5.088254e-04
[19,]  5.898689e-03  0.0032171179 -0.023519782  5.338136e-03  4.282056e-03
[20,] -1.440667e-02 -0.0074412866  0.043899625 -1.[1] 312
[1] 302
[1] 0.2043038
[1] 0.2243862
Log probability of test set 
[1] 0.193803
[1] 0.06666667 0.00000000 0.00000000
[1] 0.05804481 0.00000000 0.00000000

> #mlp <- mlp_train_checkgrad(trny_est, trnx_est_proj, m, eta, iters,0.1)
>   
> 
> 
 -8.520917e-03 -0.0044811003  0.028739105 -7.611157e-03 -6.016122e-03
[25,]  5.052286e-03  0.0025797611 -0.014576531  4.470492e-03  3.491322e-03
[26,]  1.156014e-02  0.0058370911 -0.030122715  1.019014e-02  7.922243e-03
[27,]  1.738653e-03  0.0009482352 -0.004272127  1.570079e-03  1.259868e-03
[28,] -1.159528e-02 -0.0057329383  0.032255550 -1.015648e-02 -7.827855e-03
[29,] -1.079146e-05 -0.0000179987 -0.001754681 -1.323818e-05 -1.746534e-05
[30,] -2.134484e-04  0.0001071888 -0.001945111 -6.964373e-05  6.545521e-05
[31,] -6.730215e-03 -0.0034562659  0.017006592 -5.962287e-03 -4.667714e-03
[32,]  8.002119e-05 -0.0003113575  0.001442469 -1.227215e-04 -2.914258e-04
[33,] -8.909284e-03 -0.0044674353  0.022441723 -7.835487e-03 -6.074396e-03
[34,]  1.016042e-02  0.0048937788 -0.025176810  8.825845e-03  6.729852e-03
[35,]  5.167447e-03  0.0027622795 -0.015693192  4.642022e-03  3.693900e-03
[36,]  1.539288e-02  0.0076985921 -0.041876746  1.353167e-02  1.047859e-02
[37,] -1.845073e-02 -0.0092755329  0.052199860 -1.624825e-02 -1.260855e-02
[38,] -1.117996e-02 -0.0057423282  0.033703805 -9.914788e-03 -7.761634e-03
[39,]  4.170196e-04  0.0002521183 -0.001816008  3.902111e-04  3.265104e-04
[40,]  1.184602e-02  0.0059700691 -0.033090178  1.043953e-02  8.109442e-03
               [,6]          [,7]          [,8]          [,9]        [,10]
 [1,]  0.0742867640  1.864117e-02  2.396835e-02 -1.002508e-02 -0.099511080
 [2,] -0.1250765595 -2.993789e-02 -3.854403e-02  1.607159e-02  0.176652232
 [3,] -0.0173673765 -3.936794e-03 -4.964913e-03  2.160894e-03  0.027865120
 [4,] -0.0052390186 -1.078892e-03 -1.374054e-03  5.858039e-04  0.008604712
 [5,] -0.0582426351 -1.498530e-02 -1.916650e-02  8.106941e-03  0.078247549
 [6,]  0.0000990402  4.184842e-04  6.014944e-04 -1.967731e-04  0.003418790
 [7,] -0.0827985523 -2.059637e-02 -2.633140e-02  1.114663e-02  0.115508482
 [8,]  0.0837119293  2.107220e-02  2.695318e-02 -1.139829e-02 -0.115014554
 [9,] -0.0104471336 -2.800651e-03 -3.584472e-03  1.514157e-03  0.013653702
[10,] -0.0781527064 -1.939663e-02 -2.477542e-02  1.050718e-02  0.109651343
[11,]  0.0736513535  1.819775e-02  2.329970e-02 -9.831978e-03 -0.102314120
[12,] -0.0859756690 -2.145841e-02 -2.744964e-02  1.160582e-02  0.119224872
[13,] -0.0380118966 -9.493121e-03 -1.212180e-02  5.144298e-03  0.053028189
[14,]  0.0154101319  3.572445e-03  4.509698e-03 -1.959662e-03 -0.024700247
[15,]  0.0655856296  1.615953e-02  2.071665e-02 -8.718294e-03 -0.091001277
[16,] -0.0229961681 -6.069893e-03 -7.763983e-03  3.284293e-03  0.029996576
[17,] -0.0158695931 -4.170376e-03 -5.333901e-03  2.256762e-03  0.021012888
[18,] -0.0039563526 -4.942382e-04 -5.123611e-04  3.217541e-04  0.011350140
[19,] -0.0144082535 -3.322961e-03 -4.187279e-03  1.825929e-03  0.023141156
[20,]  0.0306711037  7.694405e-03  9.802318e-03 -4.180420e-03 -0.043364680
[21,]  0.0463426723  1.162065e-02  1.480361e-02 -6.313599e-03 -0.065472903
[22,]  0.0147311541  3.797390e-03  4.838648e-03 -2.062421e-03 -0.020172467
[23,] -0.0129824823 -3.015860e-03 -3.794215e-03  1.660726e-03  0.020909605
[24,]  0.0190969423  4.631670e-03  5.877342e-03 -2.527308e-03 -0.028352515
[25,] -0.0105015989 -2.668209e-03 -3.407895e-03  1.445580e-03  0.014411060
[26,] -0.0229498599 -6.038624e-03 -7.730562e-03  3.263490e-03  0.029841824
[27,] -0.0033693344 -9.792504e-04 -1.232153e-03  5.393013e-04  0.004253215
[28,]  0.0237057472  5.933850e-03  7.633644e-03 -3.189564e-03 -0.031881150
[29,] -0.0005811530  1.813362e-05  1.768500e-05 -1.283582e-05  0.001690341
[30,] -0.0004372376 -1.058527e-04 -7.213196e-05  8.644418e-05  0.001911789
[31,]  0.0132192626  3.574101e-03  4.557118e-03 -1.940418e-03 -0.016878941
[32,]  0.0004720916  3.138641e-04  2.979255e-04 -2.173732e-04 -0.001465660
[33,]  0.0174617797  4.622368e-03  5.926265e-03 -2.494137e-03 -0.022249859
[34,] -0.0197384408 -5.068263e-03 -6.557932e-03  2.707121e-03  0.024928949
[35,] -0.0110269370 -2.854220e-03 -3.610280e-03  1.562243e-03  0.015522214
[36,] -0.0311594244 -7.966314e-03 -1.022204e-02  4.293995e-03  0.041429307
[37,]  0.0380477463  9.597084e-03  1.230158e-02 -5.178773e-03 -0.051604788
[38,]  0.0237131094  5.938651e-03  7.577268e-03 -3.220382e-03 -0.033292641
[39,] -0.0011239777 -2.598318e-04 -3.202202e-04  1.462097e-04  0.001796311
[40,] -0.0242768977 -6.176660e-03 -7.912612e-03  3.335190e-03  0.032724957
